{
  "model": {
    "type": "LSTMTimeStep",
    "options": {
      "inputSize": 1,
      "inputRange": 0,
      "hiddenLayers": [
        10
      ],
      "outputSize": 1,
      "decayRate": 0.999,
      "smoothEps": 1e-8,
      "regc": 0.000001,
      "clipval": 5,
      "maxPredictionLength": 100,
      "dataFormatter": {
        "indexTable": {},
        "characterTable": {},
        "characters": [],
        "specialIndexes": []
      }
    },
    "hiddenLayers": [
      {
        "inputMatrix": {
          "rows": 10,
          "columns": 1,
          "weights": [
            -2.3301217555999756,
            0.4502129554748535,
            -2.1480021476745605,
            -0.7231713533401489,
            -2.924208879470825,
            1.2109386920928955,
            0.47321194410324097,
            -3.8840978145599365,
            0.4016994535923004,
            0.7712435722351074
          ]
        },
        "inputHidden": {
          "rows": 10,
          "columns": 10,
          "weights": [
            0.00849008560180664,
            0.8422994017601013,
            1.9685661792755127,
            0.23886218667030334,
            -0.7139692902565002,
            2.5968711376190186,
            -2.303424596786499,
            2.156480073928833,
            -0.05288408324122429,
            0.25505438446998596,
            -1.5459978580474854,
            -0.3215864896774292,
            1.0351492166519165,
            -0.14315283298492432,
            -1.4533957242965698,
            1.0359219312667847,
            -1.5256450176239014,
            1.2437573671340942,
            -0.11478491872549057,
            -0.13947631418704987,
            0.6229817867279053,
            1.95588219165802,
            1.1790796518325806,
            0.12834130227565765,
            0.9161863327026367,
            2.0295774936676025,
            -1.6522138118743896,
            0.22573226690292358,
            2.577561855316162,
            -0.8017485737800598,
            -0.8354679942131042,
            3.737107753753662,
            2.6894800662994385,
            2.7093987464904785,
            -0.9860942363739014,
            -0.7133707404136658,
            -2.4112446308135986,
            2.282590389251709,
            -1.014036774635315,
            -2.7566630840301514,
            -0.19330602884292603,
            -0.4266723394393921,
            -1.1058915853500366,
            -0.20334146916866302,
            0.18953464925289154,
            -1.0117756128311157,
            0.268656462430954,
            -0.3755055069923401,
            -2.7163264751434326,
            1.0525686740875244,
            -0.8621551394462585,
            1.1292264461517334,
            1.080570936203003,
            3.237804651260376,
            -0.6755849719047546,
            1.3502780199050903,
            -1.0951145887374878,
            3.004995346069336,
            -1.305433750152588,
            -2.051521062850952,
            -1.094172716140747,
            0.44321921467781067,
            -0.29163727164268494,
            -0.5122689604759216,
            0.6290320754051208,
            -0.33720648288726807,
            0.21761618554592133,
            0.043345991522073746,
            -1.937989592552185,
            1.6846414804458618,
            1.1502325534820557,
            0.6437386870384216,
            -0.4397410452365875,
            -1.2062910795211792,
            -0.8981233835220337,
            1.1690874099731445,
            -0.7329269647598267,
            1.9115227460861206,
            -0.9099401831626892,
            3.4337241649627686,
            0.10867230594158173,
            -0.35993272066116333,
            1.7341582775115967,
            -0.09698837995529175,
            -1.749680519104004,
            0.6717725396156311,
            -0.6175116300582886,
            1.6752145290374756,
            0.9820029139518738,
            -1.836258888244629,
            -2.1708106994628906,
            -1.1172173023223877,
            1.8096754550933838,
            -2.622509241104126,
            -1.232473611831665,
            -3.0568034648895264,
            -1.2101404666900635,
            0.776461660861969,
            -1.1865402460098267,
            -0.038775183260440826
          ]
        },
        "inputBias": {
          "rows": 10,
          "columns": 1,
          "weights": [
            2.738917827606201,
            2.2561256885528564,
            -1.510185718536377,
            2.597036838531494,
            -1.475692629814148,
            0.6637634038925171,
            1.509048581123352,
            1.1639530658721924,
            0.15252651274204254,
            -1.2686176300048828
          ]
        },
        "forgetMatrix": {
          "rows": 10,
          "columns": 1,
          "weights": [
            -2.335983991622925,
            -1.5186657905578613,
            0.026964381337165833,
            1.0301005840301514,
            -0.888702929019928,
            -5.038635730743408,
            -2.8549001216888428,
            -4.166713237762451,
            0.09300505369901657,
            -0.2973967492580414
          ]
        },
        "forgetHidden": {
          "rows": 10,
          "columns": 10,
          "weights": [
            -0.34756889939308167,
            2.076061725616455,
            0.48502883315086365,
            2.1426119804382324,
            -1.2838904857635498,
            -0.9497402310371399,
            -2.1417930126190186,
            2.7854819297790527,
            -0.47910985350608826,
            -0.2569880783557892,
            -0.14943835139274597,
            0.1590890735387802,
            1.226443886756897,
            -0.3325909972190857,
            -1.5354561805725098,
            -1.7773677110671997,
            -0.994135320186615,
            1.2686010599136353,
            0.030506720766425133,
            -0.34440985321998596,
            0.1624993085861206,
            -0.41268542408943176,
            1.3534345626831055,
            -0.917962908744812,
            -0.31837087869644165,
            0.34457945823669434,
            -0.9471951723098755,
            -0.20921488106250763,
            2.70585560798645,
            -0.629024088382721,
            0.643842339515686,
            0.045306045562028885,
            1.4771186113357544,
            0.3622799217700958,
            -1.9725576639175415,
            -0.2987879514694214,
            -0.2761826515197754,
            3.1309099197387695,
            0.6426641941070557,
            -1.9224263429641724,
            1.3884660005569458,
            0.03832640498876572,
            -0.17749415338039398,
            -0.1682964563369751,
            -0.19540399312973022,
            0.15801872313022614,
            -0.4307609498500824,
            0.2836330533027649,
            -0.41867825388908386,
            -0.37181398272514343,
            -0.8634079694747925,
            -0.5564282536506653,
            1.4125169515609741,
            0.0898999273777008,
            -2.5919439792633057,
            -1.8695238828659058,
            0.0750914141535759,
            1.537462830543518,
            -0.2761586308479309,
            -0.3018595278263092,
            -1.006758689880371,
            -0.3861044645309448,
            -0.9053270816802979,
            -1.0553224086761475,
            0.5809928774833679,
            3.6378886699676514,
            -0.23821040987968445,
            1.210752010345459,
            -0.2663090229034424,
            1.3252266645431519,
            1.2621079683303833,
            -0.4257614314556122,
            -0.368574321269989,
            1.2088119983673096,
            -0.39452069997787476,
            -0.4158034026622772,
            -0.23113274574279785,
            0.8920606970787048,
            1.9136934280395508,
            -0.6706401705741882,
            -0.1182503029704094,
            -0.07102005928754807,
            1.5181035995483398,
            2.256138801574707,
            -1.7475801706314087,
            -0.8902670741081238,
            -0.8648980855941772,
            3.468904495239258,
            -1.0657949447631836,
            -2.9883620738983154,
            -4.444607734680176,
            -2.1707358360290527,
            2.2051734924316406,
            1.1445338726043701,
            -2.1768648624420166,
            3.0872159004211426,
            -0.5475396513938904,
            0.7887009382247925,
            -2.473421812057495,
            -0.12348445504903793
          ]
        },
        "forgetBias": {
          "rows": 10,
          "columns": 1,
          "weights": [
            0,
            0,
            0,
            0,
            0,
            0,
            0,
            0,
            0,
            0
          ]
        },
        "outputMatrix": {
          "rows": 10,
          "columns": 1,
          "weights": [
            -2.3249268531799316,
            0.2504981756210327,
            -2.765843391418457,
            -0.5960575938224792,
            -2.1477737426757812,
            0.9924154281616211,
            0.07111553847789764,
            -4.5958685874938965,
            -0.4957233667373657,
            1.2007980346679688
          ]
        },
        "outputHidden": {
          "rows": 10,
          "columns": 10,
          "weights": [
            -0.42497849464416504,
            0.9822865724563599,
            1.7653218507766724,
            0.22448915243148804,
            -1.320298194885254,
            2.8027942180633545,
            -2.467977523803711,
            2.591799736022949,
            -0.434334397315979,
            0.44055718183517456,
            -1.381007194519043,
            -0.43403199315071106,
            1.019734263420105,
            -0.11028812825679779,
            -1.5598996877670288,
            0.9771674275398254,
            -1.634402871131897,
            1.2560278177261353,
            0.018514376133680344,
            0.3568451404571533,
            0.615951418876648,
            1.691503643989563,
            0.780160129070282,
            -0.40416425466537476,
            1.3231055736541748,
            1.480237364768982,
            -1.4054679870605469,
            -0.01566355675458908,
            3.1642978191375732,
            -0.6549811363220215,
            -0.387356162071228,
            4.17480993270874,
            2.1751670837402344,
            3.25583815574646,
            -0.04908838868141174,
            -0.2682090997695923,
            -2.6817822456359863,
            2.202540397644043,
            0.1620011031627655,
            -2.913182258605957,
            -0.13914485275745392,
            -0.47677144408226013,
            -1.2239471673965454,
            -0.3453744649887085,
            0.17400236427783966,
            -2.23457932472229,
            0.7747477889060974,
            -0.8107166290283203,
            -0.5886623859405518,
            0.8887966275215149,
            -1.698426365852356,
            0.7553665041923523,
            0.8761375546455383,
            2.708911180496216,
            -0.9670366048812866,
            1.0509320497512817,
            -0.682370662689209,
            3.2349212169647217,
            -1.7754433155059814,
            -2.10384464263916,
            -0.8121280670166016,
            0.5530073642730713,
            -1.1170164346694946,
            -0.5150179862976074,
            0.7885025143623352,
            0.2841302156448364,
            0.32886946201324463,
            0.043236035853624344,
            -2.21053409576416,
            2.807095527648926,
            1.2202321290969849,
            0.1379275918006897,
            -0.41327086091041565,
            -1.5580663681030273,
            -0.5395100116729736,
            1.3823134899139404,
            -0.6441352963447571,
            1.4862759113311768,
            0.08004267513751984,
            2.495988607406616,
            -0.31382986903190613,
            0.14705009758472443,
            1.2830665111541748,
            0.9223946928977966,
            -2.0559351444244385,
            0.828432023525238,
            -0.3607856333255768,
            2.004692554473877,
            0.8155680298805237,
            -0.8417918086051941,
            -3.043931722640991,
            -1.8936587572097778,
            1.4412362575531006,
            -1.3336076736450195,
            -1.2008192539215088,
            -2.770792007446289,
            -0.19049914181232452,
            0.18865424394607544,
            -1.0427049398422241,
            1.2010118961334229
          ]
        },
        "outputBias": {
          "rows": 10,
          "columns": 1,
          "weights": [
            3.094241142272949,
            2.6156415939331055,
            -1.4310952425003052,
            2.7136361598968506,
            -1.4745004177093506,
            0.8566626310348511,
            1.795957088470459,
            1.5711764097213745,
            0.2647700011730194,
            -1.2155272960662842
          ]
        },
        "cellActivationMatrix": {
          "rows": 10,
          "columns": 1,
          "weights": [
            -2.237414598464966,
            -2.923250198364258,
            3.9431076049804688,
            2.7570340633392334,
            -6.918978691101074,
            -3.6303224563598633,
            1.3779343366622925,
            1.9655622243881226,
            -4.101194381713867,
            -4.814998626708984
          ]
        },
        "cellActivationHidden": {
          "rows": 10,
          "columns": 10,
          "weights": [
            -1.076738953590393,
            -0.18615399301052094,
            0.7157683372497559,
            -1.4428194761276245,
            -1.2950190305709839,
            -0.9659178256988525,
            -1.6553641557693481,
            1.0870792865753174,
            0.35323095321655273,
            3.609118700027466,
            -0.8414657115936279,
            -1.145232081413269,
            1.7880808115005493,
            -0.6786338686943054,
            -0.4447680413722992,
            -0.4469318985939026,
            -0.9902357459068298,
            0.8799747824668884,
            0.9142793416976929,
            0.5445178747177124,
            0.09160874038934708,
            1.5676101446151733,
            0.41018998622894287,
            0.29325753450393677,
            -0.5325039029121399,
            0.9975748658180237,
            0.6500905156135559,
            0.20864218473434448,
            -3.8957090377807617,
            -2.9234907627105713,
            1.8880813121795654,
            1.4727132320404053,
            -1.0157039165496826,
            -0.7904360890388489,
            -1.3748468160629272,
            0.1951051652431488,
            0.11928681284189224,
            -0.54365473985672,
            1.338882327079773,
            -0.8134768605232239,
            1.4250259399414062,
            0.538702130317688,
            -0.32784542441368103,
            3.6827869415283203,
            0.7324927449226379,
            0.007854953408241272,
            -1.4515844583511353,
            1.5953155755996704,
            1.4909545183181763,
            -0.041516516357660294,
            -1.5604686737060547,
            -1.582038402557373,
            1.2761294841766357,
            0.8116540312767029,
            0.6034883260726929,
            -4.045999526977539,
            -1.9924390316009521,
            2.5643694400787354,
            0.5249424576759338,
            -1.1343224048614502,
            -1.2782353162765503,
            -2.0525522232055664,
            1.2975996732711792,
            -1.1879397630691528,
            0.15924985706806183,
            0.017789028584957123,
            -0.12344159930944443,
            -0.2278122454881668,
            -4.097814559936523,
            1.0440067052841187,
            -2.7451491355895996,
            -0.8504721522331238,
            -0.8471393585205078,
            -1.9892569780349731,
            0.9019899964332581,
            0.23203204572200775,
            -0.7614105939865112,
            0.35683751106262207,
            0.2355438470840454,
            -3.0899038314819336,
            -0.18877892196178436,
            2.907470703125,
            0.516592264175415,
            0.35088488459587097,
            0.8496288061141968,
            0.6184390783309937,
            -1.5211971998214722,
            0.5997149348258972,
            -1.8021363019943237,
            0.36515411734580994,
            -3.190455198287964,
            -0.06537780910730362,
            0.10799644142389297,
            -2.7068779468536377,
            0.2101520597934723,
            0.16668449342250824,
            -0.4708993136882782,
            -1.0665841102600098,
            0.6824283003807068,
            2.480571746826172
          ]
        },
        "cellActivationBias": {
          "rows": 10,
          "columns": 1,
          "weights": [
            -0.6500586271286011,
            -0.8762729167938232,
            -2.732147455215454,
            0.040069688111543655,
            1.1081756353378296,
            2.396808385848999,
            1.4679690599441528,
            -1.134550929069519,
            1.2455540895462036,
            1.2799012660980225
          ]
        }
      }
    ],
    "outputConnector": {
      "rows": 1,
      "columns": 10,
      "weights": [
        -0.34063634276390076,
        -2.156078577041626,
        0.8507462739944458,
        0.6296808123588562,
        -1.2710273265838623,
        0.13752593100070953,
        0.9443754553794861,
        -0.17038646340370178,
        -1.5260027647018433,
        -0.5553754568099976
      ]
    },
    "output": {
      "rows": 1,
      "columns": 1,
      "weights": [
        -2.2374374866485596
      ]
    },
    "inputLookup": null,
    "inputLookupLength": 0,
    "outputLookup": null,
    "outputLookupLength": 0
  },
  "min": 53,
  "max": 98,
  "savedAt": "2025-12-08T13:09:13.936Z"
}