{
  "model": {
    "type": "NeuralNetwork",
    "sizes": [
      5,
      12,
      8,
      1
    ],
    "layers": [
      {
        "weights": [],
        "biases": []
      },
      {
        "weights": [
          [
            0.06752299517393112,
            0.1613558530807495,
            -0.0835380032658577,
            0.17929883301258087,
            -0.10561645776033401
          ],
          [
            -0.07553240656852722,
            0.1364421248435974,
            -0.012340190820395947,
            0.017885537818074226,
            0.05895466357469559
          ],
          [
            0.04883681982755661,
            -0.08556684851646423,
            -0.05325910821557045,
            -0.014723258092999458,
            0.0011087885359302163
          ],
          [
            0.12287633866071701,
            0.13136836886405945,
            0.047175709158182144,
            -0.10879866778850555,
            -0.05986244976520538
          ],
          [
            -0.10101504623889923,
            -0.1830836534500122,
            0.19129185378551483,
            0.16820740699768066,
            -0.10343774408102036
          ],
          [
            -0.06160212680697441,
            0.010453786700963974,
            -0.1484285145998001,
            -0.04038885608315468,
            -0.19737012684345245
          ],
          [
            0.07049815356731415,
            0.03185698762536049,
            0.1704149842262268,
            -0.12288273870944977,
            -0.06623849272727966
          ],
          [
            -0.18189917504787445,
            -0.09665953367948532,
            0.10893426835536957,
            0.14960341155529022,
            0.14666947722434998
          ],
          [
            0.18920622766017914,
            -0.13297021389007568,
            0.08819452673196793,
            0.1451810747385025,
            -0.16013753414154053
          ],
          [
            0.005424082279205322,
            -0.05406196415424347,
            -0.03827092424035072,
            -0.08645674586296082,
            0.129472553730011
          ],
          [
            0.1252506822347641,
            -0.11059176921844482,
            0.11279541254043579,
            0.030863750725984573,
            0.1431773453950882
          ],
          [
            -0.021900884807109833,
            -0.12762100994586945,
            0.12188517302274704,
            0.18758292496204376,
            0.06451194733381271
          ]
        ],
        "biases": [
          0.11156603693962097,
          0.032706551253795624,
          -0.1544869989156723,
          0.13303209841251373,
          0.007618046831339598,
          -0.13923297822475433,
          0.008111178874969482,
          -0.06399550288915634,
          -0.07587727904319763,
          0.07010962814092636,
          0.20118781924247742,
          -0.17710788547992706
        ]
      },
      {
        "weights": [
          [
            0.03559323400259018,
            0.05687724053859711,
            -0.06831878423690796,
            -0.08543089032173157,
            -0.10965895652770996,
            -0.1480192244052887,
            -0.13582298159599304,
            0.12057755142450333,
            0.10208555310964584,
            -0.15159957110881805,
            0.19745643436908722,
            -0.16500630974769592
          ],
          [
            -0.14639411866664886,
            0.22100473940372467,
            -0.16100475192070007,
            0.015560480765998363,
            -0.17268265783786774,
            -0.03154424950480461,
            0.1060689389705658,
            0.049935437738895416,
            0.1426944136619568,
            -0.1764698177576065,
            0.03376639261841774,
            -0.03094620630145073
          ],
          [
            0.1818864643573761,
            0.07555829733610153,
            -0.08877800405025482,
            0.211340993642807,
            0.06827212125062943,
            -0.10868636518716812,
            -0.04028092697262764,
            0.09632209688425064,
            0.01021761354058981,
            0.13056769967079163,
            0.2070664018392563,
            -0.15066230297088623
          ],
          [
            -0.15577499568462372,
            0.018039647489786148,
            0.2220892608165741,
            0.076052725315094,
            0.1312505006790161,
            -0.03106507658958435,
            0.2330789417028427,
            -0.027428360655903816,
            0.038076967000961304,
            -0.10822439938783646,
            0.04249974340200424,
            -0.12374601513147354
          ],
          [
            -0.049806348979473114,
            0.1521703600883484,
            -0.023463228717446327,
            -0.09482546150684357,
            0.010404201224446297,
            -0.011334770359098911,
            -0.06565731763839722,
            0.21158742904663086,
            0.08175238966941833,
            0.21544110774993896,
            -0.055198121815919876,
            -0.017940575256943703
          ],
          [
            0.18756575882434845,
            -0.10795102268457413,
            0.21593330800533295,
            0.1613985002040863,
            -0.015535390935838223,
            -0.043954864144325256,
            -0.09874866157770157,
            -0.03533300384879112,
            0.23387391865253448,
            0.04788515716791153,
            0.09707820415496826,
            -0.08862368762493134
          ],
          [
            0.09063223004341125,
            0.10132765024900436,
            0.13968169689178467,
            -0.131994366645813,
            0.23394198715686798,
            0.012341390363872051,
            0.17074717581272125,
            0.06066010519862175,
            0.21205781400203705,
            0.16675971448421478,
            0.2561989426612854,
            0.09516340494155884
          ],
          [
            0.14642596244812012,
            0.04440096393227577,
            0.1903250515460968,
            0.22014223039150238,
            -0.0894058495759964,
            0.117305688560009,
            0.11198500543832779,
            0.10643037408590317,
            0.04033645614981651,
            0.0479409359395504,
            0.14856480062007904,
            0.17467765510082245
          ]
        ],
        "biases": [
          0.057092901319265366,
          0.08017322421073914,
          -0.06910067796707153,
          0.1763223558664322,
          0.03178286552429199,
          0.2461291402578354,
          0.27531611919403076,
          0.09095524251461029
        ]
      },
      {
        "weights": [
          [
            0.48161327838897705,
            0.4315643906593323,
            0.5499464869499207,
            0.5597473382949829,
            0.5174554586410522,
            0.8122833371162415,
            0.8049654364585876,
            0.8404853940010071
          ]
        ],
        "biases": [
          1.0064698457717896
        ]
      }
    ],
    "inputLookup": {
      "temperature": 0,
      "humidity": 1,
      "pressure": 2,
      "motion": 3,
      "soilMoisture": 4
    },
    "inputLookupLength": 5,
    "outputLookup": {
      "landslide": 0
    },
    "outputLookupLength": 1,
    "options": {
      "inputSize": 0,
      "outputSize": 0,
      "binaryThresh": 0.5,
      "hiddenLayers": [
        12,
        8
      ],
      "activation": "sigmoid"
    },
    "trainOpts": {
      "activation": "sigmoid",
      "iterations": 2000,
      "errorThresh": 0.05,
      "log": false,
      "logPeriod": 10,
      "leakyReluAlpha": 0.01,
      "learningRate": 0.3,
      "momentum": 0.1,
      "callbackPeriod": 10,
      "timeout": "Infinity",
      "beta1": 0.9,
      "beta2": 0.999,
      "epsilon": 1e-8
    }
  },
  "savedAt": "2025-12-07T09:25:21.488Z"
}