{
  "model": {
    "type": "NeuralNetwork",
    "sizes": [
      5,
      12,
      8,
      1
    ],
    "layers": [
      {
        "weights": [],
        "biases": []
      },
      {
        "weights": [
          [
            0.07221972942352295,
            0.16716159880161285,
            -0.07909844070672989,
            0.18766607344150543,
            -0.10324374586343765
          ],
          [
            -0.07007183134555817,
            0.1431947648525238,
            -0.0071447244845330715,
            0.027647873386740685,
            0.06162899732589722
          ],
          [
            0.05472034588456154,
            -0.07816064357757568,
            -0.04774335399270058,
            -0.004268791060894728,
            0.004287170711904764
          ],
          [
            0.12807773053646088,
            0.1378374844789505,
            0.05211711674928665,
            -0.09947318583726883,
            -0.05722474679350853
          ],
          [
            -0.09905392676591873,
            -0.18076971173286438,
            0.19317583739757538,
            0.17175555229187012,
            -0.10266133397817612
          ],
          [
            -0.06227680668234825,
            0.009478390216827393,
            -0.14894984662532806,
            -0.041528262197971344,
            -0.19802963733673096
          ],
          [
            0.07417317479848862,
            0.03638772666454315,
            0.1739441156387329,
            -0.11629258841276169,
            -0.06448252499103546
          ],
          [
            -0.17588262259960175,
            -0.08917441964149475,
            0.11463078111410141,
            0.16035790741443634,
            0.1497257500886917
          ],
          [
            0.1980273574590683,
            -0.12186913192272186,
            0.0964808240532875,
            0.16087575256824493,
            -0.15537720918655396
          ],
          [
            0.008705833926796913,
            -0.050024013966321945,
            -0.03514079004526138,
            -0.0805852860212326,
            0.13103927671909332
          ],
          [
            0.13464532792568207,
            -0.098793163895607,
            0.12160920351743698,
            0.04756205156445503,
            0.14820072054862976
          ],
          [
            -0.022843552753329277,
            -0.12890303134918213,
            0.12111435830593109,
            0.1860279142856598,
            0.0636507049202919
          ]
        ],
        "biases": [
          0.11988194286823273,
          0.042379677295684814,
          -0.1440071314573288,
          0.14230595529079437,
          0.011076903901994228,
          -0.14045558869838715,
          0.014622942544519901,
          -0.053310371935367584,
          -0.0601644404232502,
          0.07591943442821503,
          0.21790103614330292,
          -0.17879252135753632
        ]
      },
      {
        "weights": [
          [
            0.07056960463523865,
            0.08849040418863297,
            -0.041599370539188385,
            -0.05266617238521576,
            -0.07904606312513351,
            -0.12306840717792511,
            -0.10566246509552002,
            0.15073399245738983,
            0.13312187790870667,
            -0.12198298424482346,
            0.23225343227386475,
            -0.13564370572566986
          ],
          [
            -0.11424389481544495,
            0.2500683069229126,
            -0.13645346462726593,
            0.04567393660545349,
            -0.1445300579071045,
            -0.00860657449811697,
            0.13378839194774628,
            0.0776488333940506,
            0.17122577130794525,
            -0.14925852417945862,
            0.06574976444244385,
            -0.003963464871048927
          ],
          [
            0.22036005556583405,
            0.11034104973077774,
            -0.05938570573925972,
            0.24738627672195435,
            0.1019328385591507,
            -0.08123940229415894,
            -0.007107164710760117,
            0.12949945032596588,
            0.044336628168821335,
            0.16314950585365295,
            0.2453475445508957,
            -0.11837078630924225
          ],
          [
            -0.11696694046258926,
            0.05312987044453621,
            0.25175219774246216,
            0.11241036653518677,
            0.16519911587238312,
            -0.003380915615707636,
            0.2665401101112366,
            0.006038040388375521,
            0.07248976826667786,
            -0.07535228878259659,
            0.08111903816461563,
            -0.0911734402179718
          ],
          [
            -0.012818226590752602,
            0.18561293184757233,
            0.0047943261452019215,
            -0.060174211859703064,
            0.042773205786943436,
            0.015053940936923027,
            -0.033762551844120026,
            0.24347688257694244,
            0.11456293612718582,
            0.24676313996315002,
            -0.01839309185743332,
            0.013103754259645939
          ],
          [
            0.23740459978580475,
            -0.06283793598413467,
            0.25403454899787903,
            0.20811577141284943,
            0.028020845726132393,
            -0.008404410444200039,
            -0.055769193917512894,
            0.007673351094126701,
            0.2780042886734009,
            0.09016410261392593,
            0.1467101126909256,
            -0.046790290623903275
          ],
          [
            0.1325109899044037,
            0.13923244178295135,
            0.17169290781021118,
            -0.09273985773324966,
            0.2705479860305786,
            0.042213257402181625,
            0.20686058700084686,
            0.0967949703335762,
            0.24913425743579865,
            0.20228715240955353,
            0.2978857755661011,
            0.13031241297721863
          ],
          [
            0.19465690851211548,
            0.08806148916482925,
            0.22718733549118042,
            0.265362948179245,
            -0.047259263694286346,
            0.15170572698116302,
            0.15357829630374908,
            0.14804966747760773,
            0.0830412209033966,
            0.08886116743087769,
            0.19658991694450378,
            0.21516041457653046
          ]
        ],
        "biases": [
          0.11072755604982376,
          0.1294645220041275,
          -0.010096502490341663,
          0.23584581911563873,
          0.08850794285535812,
          0.3226149380207062,
          0.3395915925502777,
          0.16498413681983948
        ]
      },
      {
        "weights": [
          [
            0.6893715858459473,
            0.6484763622283936,
            0.7964181303977966,
            0.8097273111343384,
            0.754997730255127,
            1.0870215892791748,
            1.11520516872406,
            1.1313700675964355
          ]
        ],
        "biases": [
          1.3747990131378174
        ]
      }
    ],
    "inputLookup": {
      "temperature": 0,
      "humidity": 1,
      "pressure": 2,
      "motion": 3,
      "soilMoisture": 4
    },
    "inputLookupLength": 5,
    "outputLookup": {
      "landslide": 0
    },
    "outputLookupLength": 1,
    "options": {
      "inputSize": 0,
      "outputSize": 0,
      "binaryThresh": 0.5,
      "hiddenLayers": [
        12,
        8
      ],
      "activation": "sigmoid"
    },
    "trainOpts": {
      "activation": "sigmoid",
      "iterations": 2000,
      "errorThresh": 0.05,
      "log": false,
      "logPeriod": 10,
      "leakyReluAlpha": 0.01,
      "learningRate": 0.3,
      "momentum": 0.1,
      "callbackPeriod": 10,
      "timeout": "Infinity",
      "beta1": 0.9,
      "beta2": 0.999,
      "epsilon": 1e-8
    }
  },
  "savedAt": "2025-12-08T13:09:13.937Z"
}