{
  "model": {
    "type": "LSTMTimeStep",
    "options": {
      "inputSize": 1,
      "inputRange": 0,
      "hiddenLayers": [
        10
      ],
      "outputSize": 1,
      "decayRate": 0.999,
      "smoothEps": 1e-8,
      "regc": 0.000001,
      "clipval": 5,
      "maxPredictionLength": 100,
      "dataFormatter": {
        "indexTable": {},
        "characterTable": {},
        "characters": [],
        "specialIndexes": []
      }
    },
    "hiddenLayers": [
      {
        "inputMatrix": {
          "rows": 10,
          "columns": 1,
          "weights": [
            0.3649238049983978,
            1.0430197715759277,
            -2.036844253540039,
            -1.9979356527328491,
            -0.8745019435882568,
            -1.7536391019821167,
            -0.7927123308181763,
            -1.3423627614974976,
            -0.262376606464386,
            -2.894157648086548
          ]
        },
        "inputHidden": {
          "rows": 10,
          "columns": 10,
          "weights": [
            0.6097539663314819,
            -0.19995573163032532,
            0.1861133575439453,
            0.9840012192726135,
            0.9455960392951965,
            -0.9517713785171509,
            -0.13655632734298706,
            1.0763800144195557,
            -0.5328249335289001,
            0.10748188942670822,
            0.825933575630188,
            0.09734269976615906,
            1.559475064277649,
            -0.45348283648490906,
            1.5909537076950073,
            -2.175971746444702,
            -0.05960032343864441,
            0.6753324866294861,
            -0.47843343019485474,
            -0.33552467823028564,
            1.819071650505066,
            3.0557868480682373,
            0.5782234072685242,
            -1.6146799325942993,
            -3.7640955448150635,
            -2.357917547225952,
            1.5895968675613403,
            -1.4118127822875977,
            2.5116188526153564,
            -2.9233086109161377,
            3.256099224090576,
            1.6077091693878174,
            -1.7427138090133667,
            -0.042682427912950516,
            -0.32991811633110046,
            1.4121696949005127,
            0.18895290791988373,
            0.18110662698745728,
            0.46573787927627563,
            1.3336535692214966,
            0.3569403886795044,
            0.4528316557407379,
            -0.48902153968811035,
            -1.4407131671905518,
            2.4570677280426025,
            1.9949787855148315,
            1.176675796508789,
            1.7999358177185059,
            2.1852355003356934,
            0.43468210101127625,
            -0.49383479356765747,
            -0.5915765166282654,
            1.5235182046890259,
            -0.7773470282554626,
            -1.173164963722229,
            -0.8677089214324951,
            0.9352573752403259,
            1.1257405281066895,
            1.8069803714752197,
            2.5385260581970215,
            1.2029987573623657,
            1.288263201713562,
            -0.31628939509391785,
            -2.4492008686065674,
            -3.5862889289855957,
            -1.4851140975952148,
            0.22588831186294556,
            -2.328958034515381,
            -0.38367921113967896,
            -1.5296235084533691,
            1.2713619470596313,
            1.6930791139602661,
            -0.5438786149024963,
            -0.1087174192070961,
            -0.976318359375,
            0.6976611018180847,
            1.1513136625289917,
            0.508945882320404,
            0.9789201021194458,
            -3.329634189605713,
            1.0425275564193726,
            1.468211054801941,
            0.014676717109978199,
            -2.6709609031677246,
            -2.9636685848236084,
            -1.3755468130111694,
            -0.7037426233291626,
            -1.4524166584014893,
            -0.7295384407043457,
            -0.9196702241897583,
            -0.30268046259880066,
            -0.4805747866630554,
            -0.6222504377365112,
            0.5224217176437378,
            -0.012992504052817822,
            1.9317220449447632,
            -2.0871341228485107,
            -0.06764625012874603,
            -1.1633915901184082,
            -3.743242025375366
          ]
        },
        "inputBias": {
          "rows": 10,
          "columns": 1,
          "weights": [
            -0.4695900082588196,
            -2.7478272914886475,
            4.262274742126465,
            1.9608691930770874,
            2.6291542053222656,
            1.610535979270935,
            2.0136075019836426,
            1.6655380725860596,
            2.6163368225097656,
            0.9512993097305298
          ]
        },
        "forgetMatrix": {
          "rows": 10,
          "columns": 1,
          "weights": [
            -0.17776139080524445,
            0.27732306718826294,
            -1.8832260370254517,
            -2.0447840690612793,
            0.6847644448280334,
            -1.304056167602539,
            -0.18792150914669037,
            -1.7541712522506714,
            0.8451592922210693,
            -2.097503185272217
          ]
        },
        "forgetHidden": {
          "rows": 10,
          "columns": 10,
          "weights": [
            1.103456974029541,
            0.059182826429605484,
            0.5764638185501099,
            0.9174891114234924,
            0.9449524283409119,
            -2.369431972503662,
            0.48598459362983704,
            0.29463520646095276,
            -0.42842209339141846,
            1.841331124305725,
            0.5180158615112305,
            0.5927237868309021,
            0.6954717040061951,
            1.0278881788253784,
            1.649048924446106,
            -2.3820807933807373,
            -0.5943610072135925,
            1.151216745376587,
            -1.2861332893371582,
            1.2020798921585083,
            1.4589660167694092,
            1.333308219909668,
            -0.031485311686992645,
            -2.2578163146972656,
            -1.4005818367004395,
            -2.5698702335357666,
            0.25499022006988525,
            -1.9694985151290894,
            0.309707909822464,
            0.13765263557434082,
            2.1478660106658936,
            2.2979543209075928,
            -2.5232198238372803,
            1.9555675983428955,
            -0.08849984407424927,
            2.0017197132110596,
            -1.903012752532959,
            1.628667950630188,
            -0.07233282923698425,
            0.7149952054023743,
            -1.389923334121704,
            -2.6513864994049072,
            0.5579696893692017,
            -1.045111894607544,
            0.7834459543228149,
            1.0188775062561035,
            1.3918379545211792,
            2.973874092102051,
            0.5058854222297668,
            -1.897706151008606,
            0.7093635201454163,
            1.0762509107589722,
            -1.2532832622528076,
            -0.8454622626304626,
            -1.5997761487960815,
            0.6760933995246887,
            0.7573138475418091,
            1.5599027872085571,
            0.1855858415365219,
            -1.3816564083099365,
            0.8643900156021118,
            0.8274829387664795,
            0.5174590945243835,
            -2.6833205223083496,
            -0.22000358998775482,
            -1.6278642416000366,
            0.23569881916046143,
            -2.024224042892456,
            0.017685960978269577,
            0.03671349212527275,
            0.08486801385879517,
            -0.020788153633475304,
            -0.5901102423667908,
            -2.0399107933044434,
            -1.9272847175598145,
            0.43556588888168335,
            -0.16758514940738678,
            0.043718501925468445,
            -0.2742820680141449,
            -3.0597779750823975,
            0.024882471188902855,
            -1.5708184242248535,
            1.3541768789291382,
            -4.906639575958252,
            0.24630355834960938,
            -0.6532511115074158,
            -0.9097588658332825,
            -2.088416814804077,
            -0.17714616656303406,
            1.508002758026123,
            0.8110193014144897,
            0.5175241231918335,
            1.4965181350708008,
            -0.950721800327301,
            -0.025749031454324722,
            -3.125053644180298,
            -0.7547900676727295,
            -0.9714927673339844,
            -0.8346697688102722,
            1.4339563846588135
          ]
        },
        "forgetBias": {
          "rows": 10,
          "columns": 1,
          "weights": [
            0,
            0,
            0,
            0,
            0,
            0,
            0,
            0,
            0,
            0
          ]
        },
        "outputMatrix": {
          "rows": 10,
          "columns": 1,
          "weights": [
            0.7593509554862976,
            1.898242473602295,
            -1.035710096359253,
            -1.4964778423309326,
            -0.6307670474052429,
            -1.0496395826339722,
            0.26409316062927246,
            -1.6393444538116455,
            0.633500337600708,
            -2.600433588027954
          ]
        },
        "outputHidden": {
          "rows": 10,
          "columns": 10,
          "weights": [
            0.802434504032135,
            -0.11192653328180313,
            0.5946953296661377,
            1.4320752620697021,
            1.132168173789978,
            -1.02519953250885,
            -0.03404926881194115,
            1.4472216367721558,
            -0.9090545773506165,
            0.9243424534797668,
            0.43190571665763855,
            -0.1997828185558319,
            1.4149507284164429,
            0.47188863158226013,
            2.0781569480895996,
            -1.6409025192260742,
            -0.11485076695680618,
            1.548736333847046,
            -0.8480534553527832,
            0.46787622570991516,
            1.5859278440475464,
            2.9521706104278564,
            0.8932458758354187,
            -0.9409061074256897,
            -3.985147714614868,
            -2.7327842712402344,
            1.510462999343872,
            -1.186357855796814,
            1.8477885723114014,
            -3.0094096660614014,
            1.1457217931747437,
            -0.26414909958839417,
            -2.0837666988372803,
            0.30375033617019653,
            -0.16092941164970398,
            1.7566207647323608,
            -0.7920035123825073,
            0.07033102214336395,
            -0.17769849300384521,
            0.05665722116827965,
            0.6540238261222839,
            0.45358362793922424,
            -0.17090430855751038,
            -0.6149910092353821,
            -2.0765016078948975,
            -0.996367335319519,
            1.4685717821121216,
            -1.6143901348114014,
            1.9356526136398315,
            -1.9790558815002441,
            -1.1673479080200195,
            -0.8177928328514099,
            0.20676693320274353,
            0.0810430645942688,
            -0.6094843745231628,
            -1.5391738414764404,
            1.029118299484253,
            1.9491500854492188,
            1.8256571292877197,
            1.9670401811599731,
            0.8792375326156616,
            0.946148693561554,
            -0.26511508226394653,
            -2.1155765056610107,
            -2.634995222091675,
            -1.3323875665664673,
            0.48109957575798035,
            -1.7559967041015625,
            0.2367173433303833,
            -1.2395695447921753,
            -0.2746165990829468,
            1.1660503149032593,
            -0.7042466998100281,
            0.3064948320388794,
            -1.362086296081543,
            1.1968419551849365,
            0.8880487084388733,
            -0.502379298210144,
            -0.04769137129187584,
            -3.1975905895233154,
            0.8932780027389526,
            1.0620332956314087,
            0.018860790878534317,
            -2.5420186519622803,
            -2.0869338512420654,
            -0.9116794466972351,
            0.2212131917476654,
            -1.488526701927185,
            -0.16081075370311737,
            -1.0720289945602417,
            0.4276537299156189,
            0.4992362856864929,
            1.7024295330047607,
            -0.14548705518245697,
            0.37113869190216064,
            1.3811508417129517,
            -1.7868125438690186,
            -0.8097742199897766,
            -0.9823517799377441,
            -3.784613847732544
          ]
        },
        "outputBias": {
          "rows": 10,
          "columns": 1,
          "weights": [
            -0.4581007957458496,
            -2.7250993251800537,
            4.260132789611816,
            2.2153873443603516,
            2.8123722076416016,
            1.6692297458648682,
            1.9954264163970947,
            1.9554332494735718,
            2.603583812713623,
            0.8952365517616272
          ]
        },
        "cellActivationMatrix": {
          "rows": 10,
          "columns": 1,
          "weights": [
            -1.6331828832626343,
            -1.8922460079193115,
            -3.6897597312927246,
            1.1365983486175537,
            1.75741446018219,
            0.5209833979606628,
            -1.1069937944412231,
            -0.5830223560333252,
            -3.141023874282837,
            2.248122453689575
          ]
        },
        "cellActivationHidden": {
          "rows": 10,
          "columns": 10,
          "weights": [
            -0.7735062837600708,
            0.8660222887992859,
            0.8475152850151062,
            -2.0091164112091064,
            -0.1576019525527954,
            -2.378784656524658,
            0.15297549962997437,
            0.19687800109386444,
            0.8419359922409058,
            -0.09583347290754318,
            0.9030249118804932,
            2.0521130561828613,
            1.4398996829986572,
            -2.294557809829712,
            -1.353590726852417,
            -2.3824245929718018,
            1.4359855651855469,
            -1.2126270532608032,
            0.7750524878501892,
            -0.5293250679969788,
            1.6930196285247803,
            1.8134080171585083,
            -1.8139225244522095,
            0.9429970979690552,
            -2.347529172897339,
            -0.9943034052848816,
            -0.3255927860736847,
            0.11897369474172592,
            1.6718130111694336,
            -0.8616546392440796,
            -2.0478172302246094,
            -1.0656101703643799,
            -0.7597577571868896,
            1.4587233066558838,
            1.1023000478744507,
            2.526665210723877,
            -0.6945837736129761,
            2.098607063293457,
            -0.2811968922615051,
            2.271444797515869,
            -1.8305518627166748,
            -0.4529120624065399,
            1.0225399732589722,
            0.9373259544372559,
            -2.615365743637085,
            -0.6343313455581665,
            1.6421105861663818,
            1.4775501489639282,
            2.3076460361480713,
            -2.9573793411254883,
            -0.8036686182022095,
            -0.8928326368331909,
            1.6397775411605835,
            -1.7745156288146973,
            1.347786784172058,
            -3.164247751235962,
            1.4362492561340332,
            -0.29160505533218384,
            0.2820447087287903,
            2.4765055179595947,
            1.482040286064148,
            1.2119470834732056,
            0.8485716581344604,
            -0.4609251618385315,
            -1.5190374851226807,
            -2.7337543964385986,
            -1.4283485412597656,
            1.0263755321502686,
            0.45370355248451233,
            -0.02420058846473694,
            0.1294521689414978,
            -0.45870667695999146,
            -0.41009923815727234,
            -1.7590997219085693,
            0.4796287417411804,
            -0.968903124332428,
            0.7381066679954529,
            -0.4808582663536072,
            -1.419958472251892,
            -1.5574159622192383,
            0.8936752080917358,
            -0.23416848480701447,
            -0.34674882888793945,
            1.2775988578796387,
            0.27891746163368225,
            -1.4082646369934082,
            -1.3332123756408691,
            1.6196781396865845,
            -1.6443204879760742,
            1.6330395936965942,
            0.1993531882762909,
            -0.567956268787384,
            -0.38382697105407715,
            3.603811264038086,
            -1.1665912866592407,
            -0.5167737007141113,
            -1.1430611610412598,
            1.8732067346572876,
            0.03390035033226013,
            -3.6541240215301514
          ]
        },
        "cellActivationBias": {
          "rows": 10,
          "columns": 1,
          "weights": [
            0.10235295444726944,
            0.7863059639930725,
            -1.7784664630889893,
            0.5186377763748169,
            0.7408697605133057,
            1.8073352575302124,
            1.9215518236160278,
            0.5226736068725586,
            -0.515145480632782,
            -0.6281605958938599
          ]
        }
      }
    ],
    "outputConnector": {
      "rows": 1,
      "columns": 10,
      "weights": [
        -1.9437463283538818,
        -2.020296335220337,
        -0.6750177145004272,
        0.8323531746864319,
        -0.20464196801185608,
        0.7278760075569153,
        -0.33018362522125244,
        0.18218116462230682,
        -0.9335269927978516,
        -0.28135406970977783
      ]
    },
    "output": {
      "rows": 1,
      "columns": 1,
      "weights": [
        -0.9783505797386169
      ]
    },
    "inputLookup": null,
    "inputLookupLength": 0,
    "outputLookup": null,
    "outputLookupLength": 0
  },
  "min": 8.2,
  "max": 27.4,
  "savedAt": "2025-12-07T09:25:21.485Z"
}